digraph Tree {
node [shape=box] ;
0 [label="EDAD <= 51.5\nentropy = 0.335\nsamples = 879608\nvalue = [825207, 54401]\nclass = NO CURADO"] ;
1 [label="DIABETES <= 1.5\nentropy = 0.144\nsamples = 633888\nvalue = [620865, 13023]\nclass = NO CURADO"] ;
0 -> 1 [labeldistance=2.5, labelangle=45, headlabel="True"] ;
2 [label="RENAL_CRONICA <= 1.5\nentropy = 0.445\nsamples = 37380\nvalue = [33920, 3460]\nclass = NO CURADO"] ;
1 -> 2 ;
3 [label="ASMA <= 1.5\nentropy = 0.797\nsamples = 1947\nvalue = [1477, 470]\nclass = NO CURADO"] ;
2 -> 3 ;
4 [label="CARDIOVASCULAR <= 1.5\nentropy = 0.419\nsamples = 153\nvalue = [140, 13]\nclass = NO CURADO"] ;
3 -> 4 ;
5 [label="entropy = 0.225\nsamples = 110\nvalue = [106, 4]\nclass = NO CURADO"] ;
4 -> 5 ;
6 [label="entropy = 0.74\nsamples = 43\nvalue = [34, 9]\nclass = NO CURADO"] ;
4 -> 6 ;
7 [label="EDAD <= 32.5\nentropy = 0.819\nsamples = 1794\nvalue = [1337, 457]\nclass = NO CURADO"] ;
3 -> 7 ;
8 [label="entropy = 0.612\nsamples = 159\nvalue = [135, 24]\nclass = NO CURADO"] ;
7 -> 8 ;
9 [label="entropy = 0.834\nsamples = 1635\nvalue = [1202, 433]\nclass = NO CURADO"] ;
7 -> 9 ;
10 [label="SEXO <= 1.5\nentropy = 0.417\nsamples = 35433\nvalue = [32443, 2990]\nclass = NO CURADO"] ;
2 -> 10 ;
11 [label="HIPERTENSION <= 1.5\nentropy = 0.341\nsamples = 17252\nvalue = [16158, 1094]\nclass = NO CURADO"] ;
10 -> 11 ;
12 [label="entropy = 0.423\nsamples = 6201\nvalue = [5667, 534]\nclass = NO CURADO"] ;
11 -> 12 ;
13 [label="entropy = 0.289\nsamples = 11051\nvalue = [10491, 560]\nclass = NO CURADO"] ;
11 -> 13 ;
14 [label="EDAD <= 42.5\nentropy = 0.482\nsamples = 18181\nvalue = [16285, 1896]\nclass = NO CURADO"] ;
10 -> 14 ;
15 [label="entropy = 0.378\nsamples = 7154\nvalue = [6629, 525]\nclass = NO CURADO"] ;
14 -> 15 ;
16 [label="entropy = 0.542\nsamples = 11027\nvalue = [9656, 1371]\nclass = NO CURADO"] ;
14 -> 16 ;
17 [label="EDAD <= 39.5\nentropy = 0.119\nsamples = 596508\nvalue = [586945, 9563]\nclass = NO CURADO"] ;
1 -> 17 ;
18 [label="RENAL_CRONICA <= 1.5\nentropy = 0.073\nsamples = 397879\nvalue = [394354, 3525]\nclass = NO CURADO"] ;
17 -> 18 ;
19 [label="HIPERTENSION <= 1.5\nentropy = 0.461\nsamples = 3011\nvalue = [2717, 294]\nclass = NO CURADO"] ;
18 -> 19 ;
20 [label="entropy = 0.59\nsamples = 1096\nvalue = [940, 156]\nclass = NO CURADO"] ;
19 -> 20 ;
21 [label="entropy = 0.374\nsamples = 1915\nvalue = [1777, 138]\nclass = NO CURADO"] ;
19 -> 21 ;
22 [label="SEXO <= 1.5\nentropy = 0.068\nsamples = 394868\nvalue = [391637, 3231]\nclass = NO CURADO"] ;
18 -> 22 ;
23 [label="entropy = 0.046\nsamples = 203896\nvalue = [202866, 1030]\nclass = NO CURADO"] ;
22 -> 23 ;
24 [label="entropy = 0.091\nsamples = 190972\nvalue = [188771, 2201]\nclass = NO CURADO"] ;
22 -> 24 ;
25 [label="SEXO <= 1.5\nentropy = 0.196\nsamples = 198629\nvalue = [192591, 6038]\nclass = NO CURADO"] ;
17 -> 25 ;
26 [label="HIPERTENSION <= 1.5\nentropy = 0.122\nsamples = 101465\nvalue = [99781, 1684]\nclass = NO CURADO"] ;
25 -> 26 ;
27 [label="entropy = 0.218\nsamples = 11576\nvalue = [11174, 402]\nclass = NO CURADO"] ;
26 -> 27 ;
28 [label="entropy = 0.108\nsamples = 89889\nvalue = [88607, 1282]\nclass = NO CURADO"] ;
26 -> 28 ;
29 [label="OBESIDAD <= 1.5\nentropy = 0.264\nsamples = 97164\nvalue = [92810, 4354]\nclass = NO CURADO"] ;
25 -> 29 ;
30 [label="entropy = 0.384\nsamples = 17121\nvalue = [15837, 1284]\nclass = NO CURADO"] ;
29 -> 30 ;
31 [label="entropy = 0.235\nsamples = 80043\nvalue = [76973, 3070]\nclass = NO CURADO"] ;
29 -> 31 ;
32 [label="EDAD <= 63.5\nentropy = 0.654\nsamples = 245720\nvalue = [204342, 41378]\nclass = NO CURADO"] ;
0 -> 32 [labeldistance=2.5, labelangle=-45, headlabel="False"] ;
33 [label="DIABETES <= 1.5\nentropy = 0.501\nsamples = 145979\nvalue = [129878, 16101]\nclass = NO CURADO"] ;
32 -> 33 ;
34 [label="RENAL_CRONICA <= 1.5\nentropy = 0.676\nsamples = 36894\nvalue = [30318, 6576]\nclass = NO CURADO"] ;
33 -> 34 ;
35 [label="SEXO <= 1.5\nentropy = 0.914\nsamples = 2946\nvalue = [1976, 970]\nclass = NO CURADO"] ;
34 -> 35 ;
36 [label="entropy = 0.884\nsamples = 1318\nvalue = [920, 398]\nclass = NO CURADO"] ;
35 -> 36 ;
37 [label="entropy = 0.935\nsamples = 1628\nvalue = [1056, 572]\nclass = NO CURADO"] ;
35 -> 37 ;
38 [label="SEXO <= 1.5\nentropy = 0.646\nsamples = 33948\nvalue = [28342, 5606]\nclass = NO CURADO"] ;
34 -> 38 ;
39 [label="entropy = 0.566\nsamples = 16290\nvalue = [14123, 2167]\nclass = NO CURADO"] ;
38 -> 39 ;
40 [label="entropy = 0.711\nsamples = 17658\nvalue = [14219, 3439]\nclass = NO CURADO"] ;
38 -> 40 ;
41 [label="SEXO <= 1.5\nentropy = 0.427\nsamples = 109085\nvalue = [99560, 9525]\nclass = NO CURADO"] ;
33 -> 41 ;
42 [label="EDAD <= 59.5\nentropy = 0.314\nsamples = 52128\nvalue = [49177, 2951]\nclass = NO CURADO"] ;
41 -> 42 ;
43 [label="entropy = 0.266\nsamples = 40219\nvalue = [38399, 1820]\nclass = NO CURADO"] ;
42 -> 43 ;
44 [label="entropy = 0.453\nsamples = 11909\nvalue = [10778, 1131]\nclass = NO CURADO"] ;
42 -> 44 ;
45 [label="EDAD <= 57.5\nentropy = 0.516\nsamples = 56957\nvalue = [50383, 6574]\nclass = NO CURADO"] ;
41 -> 45 ;
46 [label="entropy = 0.459\nsamples = 33630\nvalue = [30368, 3262]\nclass = NO CURADO"] ;
45 -> 46 ;
47 [label="entropy = 0.589\nsamples = 23327\nvalue = [20015, 3312]\nclass = NO CURADO"] ;
45 -> 47 ;
48 [label="EDAD <= 70.5\nentropy = 0.817\nsamples = 99741\nvalue = [74464, 25277]\nclass = NO CURADO"] ;
32 -> 48 ;
49 [label="DIABETES <= 1.5\nentropy = 0.749\nsamples = 46414\nvalue = [36479, 9935]\nclass = NO CURADO"] ;
48 -> 49 ;
50 [label="SEXO <= 1.5\nentropy = 0.829\nsamples = 16696\nvalue = [12327, 4369]\nclass = NO CURADO"] ;
49 -> 50 ;
51 [label="entropy = 0.777\nsamples = 7774\nvalue = [5992, 1782]\nclass = NO CURADO"] ;
50 -> 51 ;
52 [label="entropy = 0.869\nsamples = 8922\nvalue = [6335, 2587]\nclass = NO CURADO"] ;
50 -> 52 ;
53 [label="SEXO <= 1.5\nentropy = 0.696\nsamples = 29718\nvalue = [24152, 5566]\nclass = NO CURADO"] ;
49 -> 53 ;
54 [label="entropy = 0.599\nsamples = 12828\nvalue = [10958, 1870]\nclass = NO CURADO"] ;
53 -> 54 ;
55 [label="entropy = 0.758\nsamples = 16890\nvalue = [13194, 3696]\nclass = NO CURADO"] ;
53 -> 55 ;
56 [label="SEXO <= 1.5\nentropy = 0.866\nsamples = 53327\nvalue = [37985, 15342]\nclass = NO CURADO"] ;
48 -> 56 ;
57 [label="DIABETES <= 1.5\nentropy = 0.814\nsamples = 24352\nvalue = [18227, 6125]\nclass = NO CURADO"] ;
56 -> 57 ;
58 [label="entropy = 0.874\nsamples = 9040\nvalue = [6383, 2657]\nclass = NO CURADO"] ;
57 -> 58 ;
59 [label="entropy = 0.772\nsamples = 15312\nvalue = [11844, 3468]\nclass = NO CURADO"] ;
57 -> 59 ;
60 [label="HIPERTENSION <= 1.5\nentropy = 0.902\nsamples = 28975\nvalue = [19758, 9217]\nclass = NO CURADO"] ;
56 -> 60 ;
61 [label="entropy = 0.924\nsamples = 13712\nvalue = [9063, 4649]\nclass = NO CURADO"] ;
60 -> 61 ;
62 [label="entropy = 0.88\nsamples = 15263\nvalue = [10695, 4568]\nclass = NO CURADO"] ;
60 -> 62 ;
}